1 -1.69906e-05 -1.42654e-05 -0.000146215 0 0 0 -1.30888e-05 -2.63619e-05 -0.000215502 -5.17757e-05 2.74891e-05 -1.18504e-06 -1.21539e-05 -2.68039e-05 -0.000292294 -3.33964e-05 -4.55947e-06 -2.64491e-07 -1.13632e-05 -3.38446e-05 -0.000212635 -1.15605e-05 -3.07188e-05 -2.8811e-06 -1.98131e-06 -4.16317e-05 -0.00015942 1.07606e-05 1.35116e-05 -8.72953e-07 -1.86418e-05 -1.78534e-05 -8.63304e-05 6.94732e-06 2.85567e-06 2.11019e-06 -2.67631e-05 -9.36524e-05 -0.00012656 2.9138e-05 8.38018e-06 -3.18629e-05 -8.67857e-09 -5.89328e-05 -0.000234924 1.52169e-05 -2.43587e-06 1.42414e-05 1.33931e-05 -3.57339e-05 -0.000126309 1.52683e-05 -1.00485e-05 7.67785e-06 0 0 -8.9829e-05 7.3491e-06 -2.69213e-06 6.99814e-06 0 0 0 0 0 0 0 0 0 0 0 0 0 0 0 0 0 0 0 0 0 0 0 0 0 0 0 0 0 0 0 0 0 0 0 0 2.42144e-06 -4.18571e-05 -0.000221659 -7.86169e-06 -7.77653e-06 -5.24222e-06 1.59496e-05 -4.3719e-05 -0.00020241 7.78746e-06 -2.23823e-05 -2.19289e-06 1.90459e-05 -4.03511e-05 -0.000165486 -1.31218e-05 -9.41127e-06 3.32079e-06 1.05859e-05 -3.1384e-05 -0.000177493 -3.63567e-06 3.12481e-06 -8.88543e-06 3.8708e-05 -1.8502e-05 -0.000158203 6.92219e-06 9.91227e-06 2.97239e-06 1.87728e-05 -1.57068e-05 -7.42012e-05 1.50491e-05 1.09809e-05 8.66739e-07 0 0 0 0 0 0 0 0 0 0 0 0 0 0 0 0 0 0 1.64909e-05 -3.76278e-05 -0.000236582 1.75145e-05 -1.65051e-05 -1.87938e-06 1.85326e-05 -3.07052e-05 -0.000242168 1.54046e-05 2.24785e-05 -2.52314e-06 1.52002e-05 -2.03626e-05 -0.000257158 1.45356e-05 2.56319e-05 -3.45515e-06 7.35352e-06 -1.33873e-06 -0.000181885 3.63845e-06 -9.01285e-07 -3.37255e-06 1.19811e-05 -4.17436e-07 -0.000155682 3.77721e-06 -1.17877e-05 -2.05068e-06 2.27412e-06 -6.96723e-07 -0.00016085 1.44742e-06 1.49816e-05 -1.36649e-06 -1.08833e-05 6.9979e-06 -0.000166635 -7.97593e-07 1.40941e-05 1.96117e-06 -9.24675e-06 -5.42644e-07 -0.000147982 -9.57709e-08 -1.87565e-05 7.34507e-07 0 0 0 0 0 0 0 0 0 0 0 0 0 0 0 0 0 0 0 0 0 0 0 0 -9.10467e-06 -7.53019e-06 -0.00018083 1.72002e-06 -5.94192e-06 8.27161e-05 -4.70708e-06 -2.34705e-06 -0.000127821 -3.63004e-08 1.91745e-06 3.04188e-05 0 0 0 0 0 0 -4.31821e-06 -1.52945e-05 -0.000312929 9.78893e-06 -1.49343e-05 -2.6606e-06 3.9216e-06 -3.22088e-05 -0.000375144 1.21068e-05 5.6239e-05 -3.19362e-06 2.49727e-06 -3.53434e-05 -0.000645886 1.07136e-05 -8.7847e-05 -1.83638e-06 7.01583e-06 6.10564e-06 -0.000192857 -2.11844e-06 -9.77486e-06 -1.15235e-06 -2.07135e-05 -1.04738e-06 -0.000226507 7.19472e-07 3.22897e-05 -8.21162e-07 4.11877e-06 -6.25027e-06 -0.000354619 3.82398e-06 -4.72972e-05 -8.27491e-07 0 0 0 0 0 0 0 0 0 0 0 0 0 0 0 0 0 0 -7.88688e-06 -3.41705e-05 -0.000334561 -2.37936e-05 9.08749e-08 -4.16763e-07 -8.07519e-06 -3.03198e-05 -0.000301834 6.62292e-05 -2.69541e-06 6.77296e-07 0 0 0 0 0 0 -8.43874e-06 8.60088e-05 -0.000444232 -0.000113008 -3.63867e-06 0 0 -8.43874e-06 -0.000300329 -6.29881e-05 -0.000113008 0 0 0 0 0 0 0 -1.69906e-05 -1.42654e-05 -0.000146215 -1.69906e-05 -1.42654e-05 -0.000146215 -1.30888e-05 -2.63619e-05 -0.000421294 -6.40774e-05 3.61998e-06 -3.238e-06 -1.13632e-05 -3.38446e-05 -0.000273675 -3.58669e-05 -6.54878e-06 7.42006e-07 -1.98131e-06 -4.16317e-05 -0.00015942 -5.70881e-05 -7.77653e-06 -1.69531e-06 -1.86418e-05 -1.78534e-05 -0.00016902 2.64188e-05 3.68109e-05 -4.94854e-05 -2.67631e-05 -9.36524e-05 -0.000534206 0.000285019 -8.60034e-06 -1.09136e-05 1.33931e-05 -3.57339e-05 -0.000175057 -9.29405e-05 1.7217e-06 1.65333e-05 -3.00883e-06 -3.1384e-05 -0.00017193 -3.63567e-06 3.12481e-06 -8.88543e-06 0 0 0 0 0 0 0 0 0 0 0 0 0 0 0 0 0 0 0 0 0 0 0 0 2.42144e-06 -4.18571e-05 -0.000258066 -1.43028e-07 -3.38224e-06 -2.50303e-06 1.59496e-05 -4.3719e-05 -0.000301241 8.63506e-06 -6.6518e-06 -1.82084e-06 1.90459e-05 -4.03511e-05 -0.000165486 1.00741e-05 -3.43049e-06 -7.25959e-08 1.05859e-05 -3.1384e-05 -0.000176981 1.11059e-05 9.81528e-07 -3.83948e-06 3.8708e-05 -1.8502e-05 -0.00021795 6.93263e-06 2.46869e-05 -3.33967e-06 1.87728e-05 -1.57068e-05 -0.000150032 7.42442e-06 2.48074e-05 -4.44954e-06 0 0 0 0 0 0 0 0 0 0 0 0 0 0 0 0 0 0 1.64909e-05 -3.76278e-05 -0.000158162 2.10053e-05 -4.09276e-07 -9.19913e-07 1.52002e-05 -2.03626e-05 -0.000162501 1.74605e-05 5.84259e-06 -2.27281e-06 7.35352e-06 -1.33873e-06 -0.000181885 -1.57729e-05 -3.67525e-06 -6.55719e-05 1.19811e-05 -4.17436e-07 -0.000110712 8.98421e-06 4.93659e-06 -8.53158e-07 -1.08833e-05 6.9979e-06 -0.000113112 7.41254e-06 -1.73346e-07 8.17761e-06 -9.24675e-06 -5.42644e-07 -0.000100443 7.17192e-06 -1.67848e-05 -1.87137e-05 0 0 0 0 0 0 0 0 0 0 0 0 0 0 0 0 0 0 -9.10467e-06 -7.53019e-06 -0.000340505 6.27493e-06 -2.60134e-05 -1.97461e-06 -4.70708e-06 -2.34705e-06 -0.000212113 -6.73816e-07 -2.23276e-05 2.72956e-06 0 0 0 0 0 0 -4.31821e-06 -1.52945e-05 -0.000244752 4.65863e-06 -4.37982e-06 -2.07019e-06 1.16266e-06 3.9216e-06 -3.22088e-05 6.60472e-08 3.41428e-07 0 2.49727e-06 -3.53434e-05 -0.00027405 1.19036e-05 -1.43769e-06 -3.68516e-06 7.01583e-06 6.10564e-06 -0.000170098 -2.50967e-06 1.03193e-06 -3.50567e-06 0 1.16266e-06 -0.000166162 -1.6195e-05 6.60472e-08 0 4.11877e-06 -6.25027e-06 -0.000184762 5.96935e-06 1.86862e-06 -2.7999e-06 0 0 0 0 0 0 0 0 0 0 0 0 0 0 0 0 0 0 -7.88688e-06 -3.41705e-05 -0.000417098 8.80295e-07 -4.46581e-05 -1.94043e-06 -8.07519e-06 -3.03198e-05 -0.000290926 1.0758e-05 -4.84975e-05 8.66444e-06 0 0 0 0 0 0 -1.62529e-05 -2.4189e-05 -0.000158559 -2.25738e-05 -3.07998e-05 -0.000158606 -1.30684e-05 -4.11117e-05 -0.000276761 -1.57298e-05 -3.99981e-05 -0.000283419 -8.29676e-06 -3.71306e-05 -0.000273625 -9.42144e-06 -3.66336e-05 -0.000270708 -2.03527e-06 -4.15046e-05 -0.000145202 -8.81779e-06 -3.91114e-05 -0.000143923 -1.39159e-05 -2.2575e-05 -0.000101621 -1.70998e-05 -1.85814e-05 -0.000139564 -1.06081e-05 -0.000107748 -0.000136701 -4.91411e-05 -0.000100897 -0.000187715 -4.96235e-06 -7.69845e-05 -0.00024732 -5.59089e-06 -7.39903e-05 -0.000285567 -6.32748e-06 -5.33308e-05 -0.000134086 2.94869e-05 -5.16429e-05 -0.00018199 -4.16035e-06 -2.28976e-05 -0.000104254 -1.86124e-05 -2.38323e-05 -0.000139521 -1.76524e-05 -2.18943e-05 -9.76934e-05 -2.30982e-05 -2.37162e-05 -0.000105993 -7.59736e-06 -0.000111638 -0.000161074 -1.65045e-05 -0.000103556 -0.000214913 9.23268e-06 -3.97442e-05 -0.00021062 4.13189e-07 -4.34257e-05 -0.000157633 8.72897e-06 -2.07235e-05 -0.000102368 1.11844e-06 -2.07166e-05 -9.89314e-05 -9.0023e-07 -2.73765e-06 -1.68061e-05 -2.05021e-05 -6.20493e-06 -7.63396e-05 -4.97492e-07 -1.3395e-05 -2.21082e-05 -3.43665e-05 -3.1377e-05 -0.00010285 8.18556e-07 -2.15743e-05 -4.43771e-05 2.17787e-06 -3.52479e-05 -0.000202892 8.18546e-07 -9.30631e-06 -4.34229e-05 2.17786e-06 -1.40477e-05 -0.000198122 -1.52627e-07 -5.05073e-06 -2.18856e-05 2.32593e-05 -1.09318e-05 -0.000101737 -1.3354e-07 -4.33467e-07 -1.73564e-05 2.73596e-06 3.30074e-07 -7.9091e-05 1.05666e-06 0 -5.92216e-06 -1.05666e-06 0 -5.92216e-06 1.05666e-06 0 -5.92216e-06 -1.05666e-06 0 -5.92216e-06 1.05666e-06 0 -5.92216e-06 -1.05666e-06 0 -5.92216e-06 1.05666e-06 0 -5.92216e-06 -1.05666e-06 0 -5.92216e-06 1.3318e-05 -4.38091e-05 -0.000235972 1.40946e-05 -4.48441e-05 -0.000235793 2.92252e-05 -4.32194e-05 -0.000177011 2.96848e-05 -5.13599e-05 -0.000163427 1.11447e-05 -2.58287e-05 -0.000185996 1.08669e-05 -5.10997e-05 -0.000214342 5.011e-05 -3.17844e-05 -0.000168759 4.78458e-05 -3.21528e-05 -0.000198259 3.63842e-05 -4.13618e-05 -0.00010395 3.53712e-05 -5.49906e-05 -0.000143585 3.2667e-05 -2.63341e-05 -0.00018043 3.37035e-05 -2.67443e-05 -0.000178804 3.02369e-05 -1.89432e-05 -0.000135338 2.81104e-05 -2.15439e-05 -0.000121432 1.35007e-06 -3.15574e-06 -3.40939e-05 1.91556e-06 -3.27124e-05 -0.000151477 1.02458e-05 -1.5208e-06 -3.11729e-05 1.63834e-05 -8.44377e-06 -0.000136872 3.0117e-06 -1.64429e-06 -1.71239e-05 6.12493e-06 4.85086e-07 -7.79282e-05 0 1.05666e-06 -5.92216e-06 0 -1.05666e-06 -5.92216e-06 1.62438e-05 -3.64727e-05 -0.000194871 2.07353e-05 -3.6475e-05 -0.000197721 1.65517e-05 -2.86749e-05 -0.000266002 1.65305e-05 -2.86742e-05 -0.000266009 -1.0427e-06 -1.90588e-05 -0.00023431 1.03743e-05 -1.95051e-05 -0.000260027 7.06872e-06 -7.72293e-06 -0.000200202 1.14846e-05 -8.24666e-06 -0.000199286 5.86422e-05 -2.5554e-05 -0.000134538 2.34557e-05 -2.55471e-05 -0.000164418 -8.52162e-06 -1.19806e-05 -0.00016521 3.8018e-05 -1.29825e-05 -0.000217446 2.96686e-05 -5.30602e-06 -0.000162468 -1.19905e-05 -6.15234e-06 -0.000212131 1.55888e-05 3.77619e-06 -0.000175588 -1.96719e-05 2.67245e-06 -0.000231628 -3.81611e-05 -4.25357e-08 -0.000140213 7.04124e-06 2.5908e-08 -0.000175076 4.08101e-06 -6.64686e-06 -0.000108845 7.80887e-06 -6.67469e-06 -0.000125585 8.37317e-06 -6.76043e-08 -0.000170416 1.02078e-05 -9.96775e-07 -0.000171363 -5.79511e-06 5.1437e-06 -0.00013603 1.7442e-07 6.54932e-06 -0.000172809 -5.75382e-06 2.23996e-06 -0.000131412 -7.34799e-07 2.06434e-06 -0.000117188 2.27978e-06 -1.43737e-06 -2.26282e-05 -7.4877e-06 -2.46421e-06 -0.00010545 -4.67461e-07 3.5101e-07 -2.68088e-05 2.38434e-05 1.77598e-06 -0.000126353 1.23804e-06 4.32221e-07 -2.64589e-05 -1.34462e-05 1.51392e-06 -0.000124604 6.78527e-07 1.39402e-06 -2.83798e-05 -2.51862e-05 3.73454e-06 -0.000134208 -1.44722e-06 3.72243e-08 -2.33665e-05 1.0332e-05 8.40861e-08 -0.000109142 -1.05666e-06 0 -5.92216e-06 1.05666e-06 0 -5.92216e-06 -1.05666e-06 0 -5.92216e-06 1.05666e-06 0 -5.92216e-06 -1.05666e-06 0 -5.92216e-06 1.05666e-06 0 -5.92216e-06 -1.05666e-06 0 -5.92216e-06 1.05666e-06 0 -5.92216e-06 -0.000174161 -8.52483e-06 -0.000161534 -0.000181903 1.43443e-06 -0.000172943 0.000245656 -3.90492e-06 -0.000192129 0.000271217 1.14782e-05 -0.00019649 -6.04033e-05 -1.16431e-05 -0.000120668 -6.02414e-05 -2.10234e-05 -0.000157525 1.10448e-06 -2.58009e-06 -0.000139506 2.20194e-06 -5.14577e-06 -0.000174916 0.000118217 -6.03273e-05 -0.000147251 0.000127605 -3.20916e-05 -0.000168606 -6.6572e-05 -1.74558e-06 -0.000121807 -6.91101e-05 1.45871e-06 -0.000127128 8.4373e-05 -1.6757e-06 -0.00012684 8.86831e-05 1.34e-06 -0.000113575 -5.61931e-06 -4.76713e-07 -2.09382e-05 -9.57298e-06 6.50842e-06 -9.33507e-05 -1.33789e-06 -4.24488e-08 -2.41382e-05 -3.30208e-06 -2.33788e-06 -0.00010935 3.07289e-06 -2.81654e-06 -2.60295e-05 4.54228e-07 9.18086e-06 -0.000118807 0 -1.05666e-06 -5.92216e-06 0 1.05666e-06 -5.92216e-06 0 -1.05666e-06 -5.92216e-06 0 1.05666e-06 -5.92216e-06 1.39554e-05 -8.0881e-06 -0.000276859 2.7089e-06 -7.1141e-06 -0.000327807 -2.09621e-06 -2.81021e-05 -0.000532319 -1.77252e-05 -2.79863e-05 -0.000582378 4.42749e-05 -3.26881e-05 -0.00047142 1.07104e-05 -3.27093e-05 -0.000377641 -2.83009e-05 1.54475e-06 -0.000205317 4.12798e-05 1.65635e-06 -0.000287472 -4.67648e-06 4.71677e-06 -0.000212433 2.55446e-05 4.26292e-06 -0.000291071 1.43686e-05 -4.16937e-06 -0.000225453 -0.000103729 -4.45461e-06 -0.000311451 -2.24629e-05 -1.33199e-05 -0.000382222 0.000145316 -1.35325e-05 -0.000563964 6.17441e-05 -2.29873e-05 -0.000209674 2.76278e-05 -2.29869e-05 -0.000293198 1.26387e-05 6.39127e-06 -0.000162007 5.27571e-06 6.76413e-06 -0.000198137 -1.18033e-05 -3.08098e-06 -0.000313771 -1.81834e-05 -3.29299e-06 -0.000334633 1.44065e-05 -7.03e-06 -0.000252508 1.16579e-06 -6.87739e-06 -0.000202071 -1.65774e-06 2.26408e-07 -3.40664e-05 2.74655e-05 3.2685e-07 -0.000154636 -6.36145e-07 1.05818e-06 -3.5399e-05 2.10111e-05 1.67919e-06 -0.000161299 2.5107e-07 1.74818e-07 -3.72621e-05 -6.50947e-05 4.34693e-07 -0.000170615 5.6013e-06 -6.82191e-07 -5.94011e-05 6.31628e-05 -7.2043e-07 -0.000281309 3.89918e-06 -1.93307e-06 -3.47355e-05 1.06952e-06 -2.61711e-06 -0.000157982 -1.13705e-05 -1.7975e-05 -0.000407483 -1.13649e-05 -3.67904e-05 -0.000328102 4.37495e-06 -1.26278e-05 -0.000229813 4.51556e-06 -1.45491e-05 -0.000223346 -2.44972e-05 -0.000225466 -0.00042835 -2.37817e-05 -0.000199569 -0.000444145 3.32588e-06 7.82045e-06 -0.000185242 3.09077e-06 -6.24559e-06 -0.000239455 -1.21831e-07 -2.16698e-06 -0.000135264 1.5987e-07 1.37275e-05 -0.000175558 -1.18084e-05 -1.07782e-05 -0.000243483 -1.15713e-05 -2.62256e-05 -0.000242571 1.27559e-05 5.68083e-06 -0.000170114 1.22045e-05 1.2533e-06 -0.000157973 -5.00737e-06 0.000100272 -7.82359e-05 -6.60599e-06 0.000195917 -0.000375463 9.88939e-07 4.47107e-07 -3.18847e-05 1.35588e-06 2.22865e-06 -0.000143728 -6.79314e-07 5.54268e-07 -2.4135e-05 -9.7168e-07 1.65742e-05 -0.000104979 -8.0659e-06 -5.1911e-05 -0.000308493 -8.05107e-06 -5.26652e-05 -0.000313373 -5.97171e-06 -3.29564e-05 -0.000343392 -5.90555e-06 -3.74184e-05 -0.00032555 1.30288e-05 -2.86792e-05 -0.000239437 1.30604e-05 -3.09607e-05 -0.000231835 6.54373e-06 -9.22772e-06 -0.000213861 5.4553e-06 -3.5428e-05 -0.000271659 -9.58671e-06 -9.17641e-05 -0.000291747 -9.11121e-06 -7.66656e-05 -0.00033637 5.68503e-06 -1.45662e-05 -0.000203219 5.58156e-06 -1.08744e-05 -0.000262546 1.59502e-05 -1.18999e-05 -0.00013463 1.58423e-05 3.77874e-06 -0.00017508 -1.36773e-06 -5.76286e-05 -0.000258447 -1.91698e-06 -6.34539e-05 -0.000280598 -5.46128e-06 -6.52155e-06 -0.000219999 -4.97913e-06 -1.10613e-05 -0.000220223 9.97547e-06 -5.38335e-06 -0.000166584 9.57081e-06 -7.85957e-06 -0.000160078 3.0749e-06 -6.76149e-05 -3.65099e-05 4.3271e-06 -9.52313e-05 -0.000166844 -1.98001e-06 7.74566e-06 -5.0035e-05 -2.66654e-06 5.24597e-05 -0.000234479 7.52948e-07 -8.62252e-07 -3.46679e-05 9.50978e-07 2.77015e-06 -0.000157643 1.90432e-06 -1.40858e-07 -2.4023e-05 2.38992e-06 1.2002e-05 -0.000104419 1.37681e-05 -3.48319e-05 -0.000357989 -2.47898e-06 -3.38828e-05 -0.000296081 -1.36905e-05 -3.57134e-05 -0.000299134 3.4217e-05 -3.47427e-05 -0.000384167 1.09964e-05 -3.64082e-05 -0.000193979 9.05505e-06 -3.63072e-05 -0.000253069 1.26459e-06 -1.78528e-05 -0.000228964 -5.47041e-06 -1.74553e-05 -0.000204796 1.77352e-05 -5.72266e-06 -4.95828e-05 4.04938e-05 -6.84747e-06 -0.000232217 5.38301e-07 -4.41042e-06 -3.31377e-05 8.70615e-06 -5.1439e-06 -0.000149993 -8.04318e-06 5.88863e-05 -0.000322028 -2.253e-06 1.84265e-05 -0.000323121 -2.86214e-06 1.30823e-05 -0.000137166 4.38624e-06 -2.23706e-05 -0.000139506 5.75751e-07 1.28697e-05 -0.000202349 5.82231e-07 -7.62578e-06 -0.000203028 1.67278e-09 7.43312e-06 -8.80591e-05 -2.56353e-09 -6.48888e-06 -8.94076e-05 7.56151e-06 -6.98295e-06 0 0 0 -9.5433e-06 -3.63443e-06 7.25411e-06 0 0 0 -1.10994e-05 -4.25593e-06 -1.38508e-05 0 0 0 -3.95826e-06 -8.12056e-06 -1.94669e-05 0 0 0 -2.62797e-06 -1.19036e-05 -8.51647e-05 0 0 0 8.89548e-06 -1.7249e-05 -8.1547e-05 0 0 0 1.0125e-05 -9.90693e-06 -3.92371e-05 0 0 0 4.67771e-06 -8.67857e-09 -7.70194e-05 -0.000238017 1.52169e-05 -2.43587e-06 1.42414e-05 -8.67857e-09 -4.61156e-05 -0.000232731 1.52169e-05 -2.43587e-06 1.42414e-05 3.72277e-05 7.41565e-05 0 0 0 -6.21172e-05 -8.78474e-06 -8.98607e-06 0 0 0 -4.70339e-05 -1.08609e-05 -2.63619e-05 -0.00031284 -5.17757e-05 2.74891e-05 -1.18504e-06 -4.59957e-05 5.97333e-05 0 0 0 -4.95288e-05 -1.54738e-05 -2.52095e-05 0 0 0 1.81074e-06 -1.21539e-05 -2.70419e-05 -0.00028819 -3.33964e-05 -4.55947e-06 -2.64491e-07
