1 -4236.96 -837.792 -498.395 -4236.96 302.02 -6.02505 -4236.96 -830.752 486.345 -5.86674 820.617 -381.202 -1783.96 -507.32 82.247 -1783.96 1124.79 -0.694257 -1783.96 484.319 -83.6355 -826.366 -138.235 135.319 -753.887 206.789 30.781 -753.887 1125.83 -6.23137 -753.887 -227.723 -43.2437 362.093 -61.6873 160.768 -4546.41 -900.369 211.334 -4546.41 140.7 33.0909 -4546.41 -1090.82 -145.152 158.705 -297.072 164.34 -74620.6 1797.99 1128.65 -57449.9 1039.27 176.81 -40279.3 280.448 -775.218 892.742 -1119.78 -59.6718 -113475 -1037.62 4437.57 -92836.9 -12074.9 2475.28 -72199.1 -23111.5 509.122 12986 -2309.08 1077.64 -115508 3044.86 3001.09 -89091.6 2814.15 1903.42 -62675.2 2583.41 803.614 271.135 -1291.62 -675.172 -107817 2803.11 1303.57 -87179 13061.6 820.739 -66541.2 23319.3 336.598 -12069.8 -568.83 -370.909 -70569.2 -2452.54 -310.058 -53398.6 -5897.03 -86.7985 -36228 -9341.1 136.411 4052.25 262.077 -222.578 -9495.97 -4110.82 -1302.53 -9495.97 453.293 -949.473 -9495.97 -894.501 -596.317 -2680.18 588.318 781.478 -15531.8 -9415.2 2307.68 -15531.8 3245.52 741.754 -15531.8 9994.27 -824.303 -16173.9 -2609.64 -490.254 -15379 9524.27 -842.447 -15379 2917.46 -129.168 -15379 -9601.33 584.133 15937.4 1188.81 1.80918 -13270.9 -2983.58 -21.7196 -13270.9 -693.485 -23.1079 -13270.9 -4315.27 -24.4927 1109.65 -2.21333 -278.884 -157305 4339.87 -1494.76 -139308 -1606.15 -442.606 -121311 -7551.98 609.915 8494.12 1502.49 141.267 -248716 4164.27 -8790.45 -227085 -8183.91 -2231.32 -205454 -20531.2 4330.46 17640.1 9365.63 -2679.2 -108017 -109.056 -1949.37 -96460.2 59.5259 -252.2 -84903 227.936 1445.73 -153.18 1540.88 157.61 -105695 -109.055 -840.885 -94138.1 59.5252 -252.219 -82581 227.938 337.325 -153.18 534.305 157.61 -246213 1277.57 -3314.54 -224582 9813.13 -1169.21 -202951 18347.7 977.534 -12193.7 3063.06 645.592 -162456 643.776 -236.673 -144459 1514.17 -468.214 -126462 2384.4 -699.298 -1243.45 -330.868 468.491 -2218.99 -674.469 0 -2218.99 1105.47 0 -2218.99 -674.469 0 -3.29402e-13 0 0 -2218.99 -674.469 0 -2218.99 1105.47 0 -2218.99 -674.469 0 0 0 0 -2218.99 -674.469 0 -2218.99 1105.47 0 -2218.99 -674.469 0 0 0 0 -2218.99 -674.469 0 -2218.99 1105.47 0 -2218.99 -674.469 0 0 0 0 -693.82 -168.013 -51.0212 -693.82 954.955 6.82364 -693.82 -194.677 64.6683 22.2159 96.4029 -107.536 -5456.64 625.689 3.18451 -5456.64 750.226 37.4213 -5456.64 -1397.93 71.6509 1686.18 57.0497 95.5003 -65866.5 4576.31 376.643 -47044.8 -2025.64 304.104 -28223.2 -8627.53 231.319 7767.11 -85.389 114.905 -130809 3167.17 2880.04 -94486.3 2980.77 1738.57 -58163.8 2794.55 595.666 218.498 -1343.02 -341.518 -84602.8 -9941.8 833.156 -65781.2 -13503.1 568.885 -46959.5 -17063.2 303.865 4188.85 -311.359 77.3993 -715.212 404.865 -188.682 -715.212 3046.93 12.1564 -715.212 -222.916 212.994 523.148 334.713 239.03 -4535.06 2606.85 372.277 -4535.06 2960.04 -39.7555 -4535.06 -2598.7 -451.786 4337.88 -686.685 37.632 -222602 8114.28 -327.214 -191601 -1713.95 -138.908 -160601 -11541.6 49.7591 8934.16 170.933 -424.676 -383851 26231.5 -4683.33 -325385 21889.7 -830.919 -266920 17546.4 3023.05 3946.62 3498.89 298.06 -175691 10440.4 -1802.5 -155963 11148.1 -766.854 -136236 11854.9 269.484 -1011.45 1478.78 65.0972 -2218.99 -674.469 0 -2218.99 1105.47 0 -2218.99 -674.469 0 0 0 0 -3010.72 -774.889 -14.8624 -3010.72 573.614 -15.0394 -3010.72 -350.468 -15.2163 -353.684 -0.294884 -54.7802 14.2197 -0.967206 -0.068809 14.2197 1135.86 -0.0217123 14.2197 0.103906 0.0253843 -0.892593 0.0784944 15.5338 -7652.94 -2001.92 24.0726 -7652.94 1049.76 -9.17077 -7652.94 1828.86 -42.4141 -3192.32 -55.4056 6.39841 -2960.01 -624.903 44.8358 -2960.01 443.197 5.82911 -2960.01 -761.286 -33.1776 113.652 -65.0112 80.2308 -62413 -18662 66.15 -45242.3 -10276.6 67.4126 -28071.7 -1890.45 68.7348 -9866.02 1.90836 123.771 -124954 10642.2 764.537 -102665 -3755.05 453.841 -80376.4 -18152.2 142.576 16939 -364.656 6.57616 -124340 -6708.78 750.204 -101225 6655.51 478.187 -78111.1 20019.7 205.561 -15724.2 -319.444 -46.2897 -132434 -1723.19 848.423 -110145 9184.19 506.592 -87855.9 20091.2 163.967 -12833.9 -401.732 -207.929 -69956.7 17270.7 78.7434 -52786.1 6498.09 95.0339 -35615.4 -4275.17 111.237 12674.4 19.1911 -116.139 -6500.45 -4625.65 49.313 -6500.45 1509.59 43.9312 -6500.45 1732.91 38.5461 -5298.7 -8.98969 128.442 -3199.22 1723.85 223.193 -3199.22 4863.28 43.165 -3199.22 2090.79 -136.864 -305.78 -300.045 82.0469 -10409.4 -6820.46 -196.986 -10409.4 2808.65 75.3855 -10409.4 6525.8 347.748 -11121.8 453.899 79.0614 -8751.92 -357.548 19.1087 -8751.92 -157.655 -14.928 -8751.92 -5869.66 -48.9633 4593.31 -56.71 -24.7156 -211800 10990.5 784.804 -193803 13952.8 473.038 -175806 16913 160.658 -4232.57 -444.963 -297.875 -325727 -4929.12 -248.778 -302366 -14501.4 312.415 -279004 -24072.1 873.088 13674.9 801.547 -189.174 -333383 14559.4 -317.683 -309156 20555.1 124.152 -284929 26548.7 565.775 -8565.83 630.993 -131.636 -344815 7154.7 -988.01 -321453 17338.7 -65.9648 -298092 27520.7 856.163 -14548.9 1316.54 180.917 -218711 -6976.81 -20.3245 -200714 -10549.5 -6.10192 -182717 -14120.6 8.12853 5104.32 20.3068 49.1716 -2218.99 -674.469 0 -2218.99 1105.47 0 -2218.99 -674.469 0 0 0 0 -2218.99 -674.469 0 -2218.99 1105.47 0 -2218.99 -674.469 0 0 0 0 -2218.99 -674.469 0 -2218.99 1105.47 0 -2218.99 -674.469 0 0 0 0 -2218.99 -674.469 0 -2218.99 1105.47 0 -2218.99 -674.469 0 -3.29402e-13 0 0 -6675.82 -1537.47 293.97 -6675.82 448.606 870.841 -6675.82 162.021 1447.51 -1416.13 961.082 16.6885 -10311.5 -709.137 1410.06 -10311.5 752.034 -494.404 -10311.5 -59.5768 -2398.69 -541.337 -3172.98 61.282 -79992.7 8547.26 407.184 -61171 10998.1 365.757 -42349.3 13448.2 323.716 -2883.07 -49.7505 -1477.88 -149739 -7344.01 130.433 -113416 -6050.45 -423.13 -77093.9 -4756.8 -976.198 -1521.8 -650.945 3457.79 -55150.5 24668.2 1924.01 -36328.9 17292.3 -530.578 -17507.2 9915.58 -2984.04 8678.32 -2885.47 -3050.79 -5587.49 -1518.44 369.282 -5587.49 2468.47 861.1 -5587.49 543.459 1352.86 -1718.22 819.602 -658.625 -5258.63 1681.91 427.437 -5258.63 2110.17 -407.733 -5258.63 -3373.48 -1242.88 4212.81 -1391.78 -1228.82 -176916 -2052.83 -2280.9 -152961 -4375.31 -965.375 -129006 -6697.22 351.353 2732.42 1546.58 -1157.47 -393594 -1313.76 -1048 -347365 159.159 212.849 -301137 1632.07 1473.28 -1732.82 1482.77 4049.71 -219934 -12128.7 1247.3 -195979 -16117.2 2117.37 -172024 -20103.1 2983.67 4693.1 1024.36 -3060.76 -2218.99 -674.469 0 -2218.99 1105.47 0 -2218.99 -674.469 0 0 0 0 -2218.99 -674.469 0 -2218.99 1105.47 0 -2218.99 -674.469 0 -3.29402e-13 0 0 -11085.8 -4979.05 81.9161 -11085.8 870.319 -11.4254 -11085.8 4480.87 -104.767 -9009.45 -177.793 32.0996 -9628.6 -4611.46 15.8402 -9628.6 3051.51 4.737 -9628.6 4983.13 -6.36616 -5711.07 -13.2181 -7.95453 -27791.4 6315.16 -2.30036 -27791.4 -1085.5 -0.268498 -27791.4 -11659.1 1.76337 14379.4 3.25098 -15.9489 -123292 -14210.7 -51.8686 -103515 2022.73 -77.898 -83737.8 18256.3 -103.495 -16235.5 -26.0405 -63.9267 -147726 -3326.77 -297.704 -123146 5436.08 -165.891 -98566.5 14198.8 -33.234 -8764.1 131.616 -25.9662 -121728 14906.5 -184.881 -102940 -11268.8 -121.249 -84151.9 -37443.1 -56.9733 26178.3 63.2265 -30.4688 -136824 -17826.7 -70.5581 -125947 3702.98 -42.5219 -115070 25229.5 -13.9936 -21531.6 27.2829 -6.93088 -120551 23095.7 -19.0945 -101481 15421.4 -18.3806 -82410.1 7744.83 -17.7002 7676.17 -0.0884731 19.83 -10886.7 -5219.57 -16.9971 -10886.7 1455.7 -70.6099 -10886.7 4772.7 -124.214 -9516.24 -102.094 -38.3911 -5895.94 -2915.25 -33.3385 -5895.94 4382.63 -2.85124 -5895.94 3083.25 27.6365 -3570.16 36.2819 51.5643 -16445 6287.91 -9.8683 -16445 1468.77 -31.7965 -16445 -8109.86 -53.7159 11517 -35.1009 69.3948 -300466 9552.53 81.5409 -265856 21444 40.4631 -231246 33331.9 -0.71849 -11892 -41.0137 184.06 -388043 7037.58 473.658 -345028 18023.3 158.109 -302014 29007 -157.85 -10986 -315.16 -100.1 -312219 -1240.42 59.8127 -279340 -26589.1 -41.049 -246461 -51932 -141.779 25348.7 -100.81 -52.0875 -288154 -5370.07 -135.13 -269119 7558.85 -126.352 -250084 20479.5 -116.925 -12927.4 8.5878 -26.0311 -295426 -20146.2 -671.33 -262052 -21259.3 -401.448 -228678 -22368.5 -130.496 1114.18 269.343 -215.658 -15455.5 7612.69 3.85057 -15455.5 1791.84 4.41997 -15455.5 -7253.09 4.98544 11796.8 0.85949 -60.8971 -1420.39 545.72 -17.034 -1420.39 1916 -3.55517 -1420.39 -693.861 9.92402 885.387 19.2513 70.0347 -9963.34 -2250.9 -51.331 -5725.42 -956.557 -15.5506 -1487.5 338.617 20.2488 -1294.81 35.7723 14.4157 -184350 42930.8 241.843 -142960 36062 126.92 -101570 29192.7 11.584 6868.92 -114.811 42.9343 -56186.3 -167.658 -106.116 -40435.4 2785.72 -53.6792 -24684.5 5738.99 -1.14031 -2953.73 52.3494 -110.246 -11792.4 -4577.83 11.0602 -11792.4 -3162.38 32.2476 -11792.4 -4742.65 53.4163 128.948 33.5108 77.5984 -3041.95 959.328 112.897 -3041.95 1727.46 63.7842 -3041.95 -1203.39 14.6596 1544.73 -70.1566 -8.7388 -105612 -4061.03 140.832 -100314 1927.07 40.4032 -95016.8 7896.04 -60.5606 -5977.77 -99.9136 -33.8388 -420400 -16869.6 -271.649 -368662 -15782 -47.2736 -316924 -14693.8 177.287 -1087.48 223.985 -202.489 -121097 -1152.49 71.0095 -101409 2568.88 3.01955 -81719.9 6289.79 -64.9676 -3721.31 -67.9144 163.132 -867.344 -436.444 -6.3773 -867.344 835.545 -4.95643 -867.344 462.688 -3.53544 -999.002 3.15771 70.7604 -3420.9 1728.23 -16.4916 -3420.9 1884.09 -10.146 -3420.9 -1661 -3.79813 2510.44 9.39291 -10.8602 -1686.71 628.146 7.10987 -1686.71 1889.73 10.1416 -1686.71 -828.828 13.1721 1040.65 4.32542 7.04572 -14221 1066.81 54.0336 -11183.8 128.01 14.9853 -8146.61 -811.216 -24.1081 938.843 -39.0021 -16.3156 -31215 -4868.81 -58.3771 -23092.4 -3423.09 -12.8236 -14969.7 -1975.86 32.77 -1446.94 45.5693 -5.24161 -131666 7601.32 85.1297 -104119 8800.36 51.616 -76573 9999.22 17.8765 -1199.84 -33.6268 -17.2237 -56341.6 419.556 67.6001 -40590.7 3332.73 47.7142 -24839.7 6245.78 27.6538 -2913.62 -20.0639 -0.704228 -6225.79 -1128.13 -24.8985 -6225.79 1597.53 -73.861 -6225.79 2794.5 -122.812 -4357.93 -108.705 -49.8184 -3234.57 -1297.92 -55.6545 -3234.57 441.664 -12.7049 -3234.57 -1258.19 30.247 -29.5261 63.6163 34.317 -1701.3 441.248 56.541 -1701.3 1711.29 20.5021 -1701.3 -717.609 -15.5388 827.712 -51.4857 22.2443 -35321.1 1007.97 -61.9785 -31524.6 -231.269 -5.78756 -27728.2 -1468.42 50.4258 1236.98 56.0882 26.449 -129466 -2208.78 106.735 -119312 3148.55 24.2474 -109159 8500.76 -58.4254 -5356.37 -82.2411 5.89768 -304211 9590.24 -137.648 -269778 11065.7 -56.9827 -235344 12540.1 23.972 -1475.66 80.4496 -104.559 -120536 292.886 -199.061 -100847 3113.56 -86.0483 -81158.2 5933.69 27.2261 -2820.69 112.802 -17.0193 -16815.7 4510.36 102.956 -16815.7 -357.985 11.9957 -16815.7 -7256.98 -78.9717 11766.4 -181.914 -9.81523 -31729.5 -2830.09 84.357 -26785.3 -35.2943 27.8968 -21841 2759.53 -28.7533 -2794.6 -56.6281 -25.4652 -117114 5160.71 185.073 -92534.4 4597.73 156.722 -67954.5 4034.51 127.551 563.001 -29.2827 23.0083 -5758.43 1485.05 -18.608 -5758.43 412.44 -50.1026 -5758.43 -2337.7 -81.5846 3822.42 -62.9427 2.59584 -62474.1 -912.475 -96.1407 -57529.8 416.178 -30.1835 -52585.6 1742.96 36.1411 -1327.59 65.6139 20.8057 -207575 -3402.94 -368.358 -182995 -1034.16 -154.787 -158415 1334.72 59.9404 -2368.68 212.709 -66.1005 -98640.1 9651.06 -3647.81 -60816.6 -3093.78 -1823.91 -22993.2 -15838.6 -8.71186e-08 7496.96 1072.89 0 -193972 -5036.19 89.9439 -163936 -16203.9 2373.18 -133900 -27371.5 4656.42 8272.35 1691.29 0 -92457.3 15781.5 -4.98931 -46228.6 7890.77 -2.49465 0 0 0 4641.63 1.46744 0 -228301 -17632.4 -0.0963739 -173235 -25672.4 -2.54284 -118168 -33712.3 -4.98931 5955.52 -1.8122 0
