1 -9100.6 -7732.88 7451.55 2257.18 17971.5 10289.9 -1708.5 -18410.1 -2.3465e-10 -1.38252e-08 -1.80668e-06 4104.56 -63.8546 1389 2264.93 92.8026 -5850.58 -1136.37 42.1598 71.4987 -3.55413e-11 -5.22512e-10 2.80262e-06 -1.06581e-12 -102.275 -662.843 -5852.3 1.54341e-07 -2.40032e-06 1.91847e-13 1894.59 -2033.96 1.01863e-10 9.09495e-13 -1.45519e-10 -5.45697e-12 153.602 -15711.2 4.65661e-10 3.07409e-10 -5.27943e-08 2.58069e-11 424.658 431.645 4.36557e-11 9.65724e-09 -6.53235e-08 -80.5579 -203.795 -5927.65 -6.1118e-10 2.47187e-08 1.1579e-07 6.15685e-12 -8784.07 371.514 -4.36557e-11 -1.06752e-10 4.65661e-10 1.13687e-12 10713.1 1502.49 183806 -2696.75 -185981 1421.32 17640.1 9365.63 285303 -16283 203724 -3408.47 -2372.17 1540.88 113950 -1949.37 -9166 -3.52229 2065.81 534.305 111628 -840.885 -32586.8 -13.3477 -12193.7 3063.06 282800 -5764.99 -192417 1345.4 -3462.44 -330.868 188957 28.0212 200379 -127.697 -272.667 -5741.19 5.27029e-09 1.49323e-08 -1.38864e-09 -5.7663e-09 -1329.37 -147.361 4.69225e-09 -1.76769e-08 -1.34482e-09 1.14456e-08 -240.014 -6948.75 -19749.7 -3.9131e-10 8.88178e-13 -1.77351e-11 1993.13 -24.3067 -6.14295e-07 -7.09333e-07 -1.80483e-07 2.54888e-07 9647.53 441.104 -7.76385e-06 2.59295e-05 1.62939e-06 1.82312e-05 1103.46 665.254 3.31784e-09 -7.47968e-09 2.6489e-11 2.51475e-10 -170.933 8934.16 222602 -94929 -327.214 358.012 -3498.89 6165.6 389784 -32881 -4683.33 -473.005 -1478.78 -3230.44 204169 -247119 -2985.53 -1736.12 15.7385 -1226.91 -2.15437e-10 5.62845e-07 3.9712e-07 2.77822e-12 2.27374e-12 1.23652e-11 1.04819e-10 2.71839e-07 -3.65608e-07 -5.27578e-12 -71.6007 -1533.34 3.19076e-10 1.16113e-07 -3.43316e-07 -2.34763e-11 -1158.3 4601.31 11910.9 -9.43175e-08 -2.90356e-07 -1.06226e-12 -81.3798 1794.23 -1.97906e-09 -1.63254e-10 -1.28202e-08 -1.35634e-09 7.11076e-10 -1.51843e-10 -7.567e-10 3.62661e-11 5.82077e-10 -1.34544e-10 190.42 2274.37 -5.82077e-11 1.63013e-08 -3.43716e-08 7.2129e-12 776.73 -27.9984 2.61934e-10 1.63066e-08 3.4197e-08 5.87544e-13 -13674.9 -801.547 364292 890.016 -202995 -243.662 8565.83 -630.993 372936 822.477 331389 705.84 14548.9 -1316.54 383380 2041.25 218910 556.348 -2885.33 -20.3068 245211 36.5699 -255838 -70.0876 -4005.24 -4825.65 4.51784e-10 -1.76215e-12 1.39266e-12 -2.04636e-12 -5508.26 63.0087 4.07454e-10 2.50388e-07 2.00373e-07 -2.37108e-11 1482.77 1732.82 448969 -28942.7 2011.8 -3960.74 133.203 20904.1 -2.08686e-10 -1.02291e-07 -3.4612e-07 -1.97531e-12 4641.63 -15511.9 3.67204e-09 -1.23446e-07 -8.32455e-07 -2.92744e-12 28.5593 534.359 2.61934e-10 -5.01254e-07 -3.42174e-06 1.25056e-11 -966.567 735.666 5.08322e-11 -3.10524e-08 -4.00511e-08 6.82121e-13 5.27507e-11 2.77112e-13 -1.0904e-10 5.21894e-12 -2.17256e-10 6.11067e-13 2063.54 247.95 -8.73115e-11 9.49285e-12 -1.74623e-10 -3.24318e-11 -10986 -315.16 388043 473.658 -152060 -29.1156 25348.7 -100.81 312219 59.8127 254779 134.752 -12927.4 8.5878 288154 -135.13 -137921 29.9815 39.3341 4000.5 -1.41881e-10 -1.09139e-11 -1.0516e-12 -4.79261e-12 -3219.12 -425.632 -1.45519e-11 2.80983e-07 1.96124e-07 3.8618e-12 82.2411 -5356.37 129466 51405.7 106.735 -37.1493 836.583 4.82032e-11 -1.45519e-11 8304.24 8.71196e-08 2038.39 1248.39 -836.583 -2.91038e-11 -1.95141e-08 -8304.24 721.561 -1691.29 8272.35 193972 -198635 89.9439 -1775.85 6433.11 13700.4 10883 2667.49 -5967.53 -18334.5 34.9128 16750.3 -8.61655e-09 -2.83535e-09 -1.27422e-10 -2.66662e-11 -42.1598 -71.4987 -6.54836e-11 -1.04592e-11 -1.13687e-12 -2.75335e-13 102.275 662.843 5852.3 0 0 0 -1894.59 2033.96 8.73115e-11 -2.50322e-07 2.00368e-07 1.35598e-11 -153.602 15711.2 4.75848e-09 -2.48026e-07 -2.00379e-07 -1.91802e-11 203.795 5927.65 -1.74623e-10 -1.03682e-10 -1.02318e-12 -1.85452e-12 0 0 0 0 0 0 1024.36 -2474.12 248412 278404 -581.463 1903.23 99.9136 -5977.77 105612 36800.6 140.832 2.86563 -56.0882 1236.98 35321.1 6762.67 -61.9785 -14.1096 0 0 0 0 0 0 272.667 5741.19 -2.76486e-10 -6.10698e-08 1.81985e-06 -2.51532e-12 1329.37 147.361 4.36557e-11 -5.94708e-07 4.82351e-06 1.61435e-11 240.014 6948.75 19749.7 5.01435e-07 6.02604e-07 1.39746e-11 -1993.13 24.3067 1.74623e-10 8.55493e-11 1.5134e-09 3.64835e-10 -9647.53 -441.104 3.20142e-10 8.1215e-12 7.567e-10 6.02576e-11 -1103.46 -665.254 5.82077e-11 -3.95062e-12 2.91038e-10 7.62839e-11 -2368.68 212.709 207575 -368.358 355701 -301.887 1114.18 269.343 295426 -671.33 375724 -145.262 2013.59 444.963 238301 -1140.77 246186 -164.887 -15.7385 1226.91 2.49565e-09 -1.07684e-08 2.36078e-11 -1.23002e-10 71.6007 1533.34 -8.36735e-11 1.01863e-10 -9.9476e-14 -4.33431e-13 1158.3 -4601.31 -11910.9 1.76215e-11 5.37348e-12 -7.50333e-12 81.3798 -1794.23 1.45519e-10 -1.89175e-10 9.9476e-14 -9.66338e-13 -190.42 -2274.37 1.45519e-11 -1.45519e-11 2.55795e-13 1.13687e-13 -776.73 27.9984 -7.27596e-11 2.03727e-10 -4.77485e-12 4.54747e-12 -112.802 -2820.69 120536 -132882 -199.061 -107.062 67.9144 -3721.31 121097 -132054 71.0095 -88.4262 1546.58 -4951.4 205394 -240977 3286.17 2920.58 4005.24 4825.65 -1.74623e-10 1.08138e-07 -2.87284e-07 3.06954e-12 5508.26 -63.0087 1.16415e-10 -1.63066e-08 3.43425e-08 1.03723e-13 -11892 -41.0137 300466 81.5409 -411099 -241.479 -133.203 -20904.1 4.22006e-10 -4.65661e-10 8.12861e-12 2.84786e-11 1.46744 -4641.63 15511.9 4.12259e-12 1.30335e-15 2.82483 -28.5593 -534.359 1.49303e-08 2.12362e-07 -1.4743e-09 -6.97535e-09 966.567 -735.666 1.16415e-10 2.50293e-07 -2.00376e-07 -1.52471e-11 -189.011 -1.46744 5.82077e-11 -2.03436e-08 1.2897e-07 79.0794 -2063.54 -247.95 1.18453e-08 -2.9781e-07 5.91895e-08 -8.84083e-09 -223.985 -1087.48 420400 -374102 -271.649 -5.81748 1.8122 5955.52 228301 -421848 -0.0963739 3.48848 -80.4496 -1475.66 304211 5620.29 -137.648 108.581 -39.3341 -4000.5 4.36557e-11 -6.10772e-08 -1.82046e-06 -6.30962e-12 3219.12 425.632 2.76486e-10 -9.82818e-09 1.18942e-07 1.62359e-11 -1327.59 65.6139 62474.1 -96.1407 -22778.4 2.15916 -1.09139e-11 -9.09495e-13 1.36424e-12 4.09273e-11 8.29914e-12 1.04592e-11 -8.18545e-12 -1.36424e-12 -1.00044e-11 1.36424e-11 2.27374e-13 4.09273e-12 1.27329e-11 2.98428e-13 -7.27596e-12 -1.81899e-12 -2.98428e-13 -2.72848e-12 -1.45519e-11 1.25056e-12 1.13687e-11 9.09495e-13 -2.84217e-13 6.82121e-13 2.04636e-12 0 -9.09495e-12 -8.6402e-12 0 -8.91305e-11 -3.63798e-11 -4.54747e-12 -2.51021e-10 -3.81988e-11 4.09273e-12 2.43745e-10 -2.27374e-12 -8.18545e-12 -1.81899e-10 -5.00222e-12 -6.82121e-13 -7.27596e-12 1.27329e-11 -2.16005e-12 2.00089e-10 1.63709e-11 1.25056e-12 -3.63798e-12 4.54747e-12 3.97904e-13 -3.81988e-11 9.09495e-13 1.19371e-12 7.82165e-11 -1.09139e-11 2.38742e-12 -2.81943e-11 -2.36469e-11 5.34328e-12 -6.09361e-11 -3.09228e-11 -1.36424e-12 9.77764e-07 1.81899e-11 2.72848e-12 -9.77759e-07 1.81899e-12 -2.27374e-12 9.70626e-07 -4.36557e-11 -1.13687e-12 -9.70554e-07 -5.45697e-12 -4.14691e-12 9.91349e-11 1.09139e-11 8.85514e-13 1.00044e-11 0 4.54747e-13 1.81899e-11 3.63798e-12 2.27374e-13 -4.00178e-11 -3.63798e-12 1.81899e-12 6.54836e-11 -7.27596e-12 1.63709e-11 -2.25555e-10 -5.68434e-14 -6.82121e-13 1.90994e-11 2.84217e-14 -4.54747e-13 3.36513e-11 2.84217e-14 0 3.36513e-11 -5.68434e-14 4.54747e-13 -3.91083e-11 -3.63798e-12 -4.54747e-13 -5.09317e-11 1.81899e-12 3.18323e-12 2.98314e-10 6.82121e-13 1.7053e-13 -1.09139e-11 -1.59162e-12 3.41061e-13 4.72937e-11 1.81899e-12 0 1.81899e-12 -1.81899e-12 0 4.54747e-13 -4.54747e-13 0 9.09495e-13 4.54747e-13 0 9.09495e-13 -4.54747e-13 0 9.09495e-13 4.54747e-13 0 9.09495e-13 -4.54747e-13 0 9.09495e-13 4.54747e-13 0 9.09495e-13 -4.27157e-09 -2.36622e-08 -5.34919e-09 -4.0737e-09 1.68695e-08 -4.46448e-09 -5.98845e-11 -3.11047e-10 -1.53932e-10 6.57252e-12 4.71118e-10 -8.6402e-11 8.52651e-13 5.45697e-12 -3.45608e-11 -7.95808e-13 1.09139e-11 7.45786e-11 3.63798e-12 1.89345e-10 3.67436e-10 -1.59162e-12 4.37694e-12 -1.12777e-10 -1.47793e-12 -3.36513e-11 4.54747e-11 -6.25278e-13 2.45564e-11 3.81988e-11 1.88801e-07 -7.29049e-07 1.5414e-06 -6.39474e-06 1.52789e-05 6.82384e-06 2.17221e-09 -2.79979e-08 5.415e-06 -8.79936e-11 7.89805e-09 -5.40593e-06 3.97904e-13 3.63798e-12 0 -3.97904e-13 9.09495e-12 -2.91038e-11 0 -2.72848e-12 4.36557e-11 0 -3.00133e-11 1.01863e-10 9.09495e-13 -3.18323e-12 7.63976e-11 9.09495e-13 -2.22826e-11 -1.09139e-11 0 -4.54747e-13 9.09495e-13 0 4.54747e-13 9.09495e-13 1.00044e-11 1.58867e-12 -2.72848e-12 -2.65118e-10 4.52555e-12 1.13687e-10 9.5568e-13 5.78704e-15 3.31966e-11 -9.64562e-13 -6.90545e-13 -3.72893e-11 5.45697e-12 -7.74492e-13 -6.36646e-12 1.54614e-11 -1.42109e-13 -1.93268e-11 2.22826e-10 -4.81748e-12 5.45697e-12 -2.22826e-11 7.81597e-13 -4.77485e-12 -3.27418e-11 8.31335e-13 1.27329e-11 -1.27329e-11 1.48503e-12 7.09406e-11 3.63798e-12 1.13687e-13 9.09495e-11 -7.27596e-12 -1.25056e-12 9.09495e-11 -4.72937e-11 1.7053e-13 1.0732e-10 0 -1.19371e-12 -1.54614e-10 -1.27329e-11 -5.68434e-14 1.49157e-10 3.09228e-11 5.68434e-14 -3.31056e-10 -1.81899e-12 1.06581e-14 -6.00267e-11 1.81899e-12 -3.90799e-14 -9.64064e-11 1.29148e-10 2.79154e-11 -1.91527e-07 -1.1978e-09 1.49919e-10 1.89997e-07 1.90616e-08 -6.97185e-10 3.21597e-09 -7.37145e-10 1.44098e-10 4.73847e-10 2.18279e-11 7.78755e-12 9.43216e-07 -4.91127e-11 -5.96856e-12 -9.4314e-07 -1.81899e-12 -2.4869e-13 -4.18368e-11 -2.36469e-11 -2.34479e-13 -3.54703e-11 -6.36646e-12 2.27374e-13 4.72937e-11 4.54747e-12 6.82121e-13 4.72937e-11 5.45697e-12 -1.13687e-13 -4.91127e-11 5.45697e-12 -2.27374e-13 1.2551e-10 9.09495e-12 1.13687e-13 -9.27685e-11 4.91127e-11 0 2.56478e-10 -7.27596e-12 -4.54747e-13 1.2551e-10 -6.18456e-11 -4.54747e-13 -1.65528e-10 5.45697e-12 -1.42109e-14 4.72937e-11 2.00089e-11 -6.39488e-14 -2.14641e-10 4.54747e-13 0 9.09495e-13 -4.54747e-13 0 9.09495e-13 4.54747e-13 0 9.09495e-13 -4.54747e-13 0 9.09495e-13 4.54747e-13 0 9.09495e-13 -4.54747e-13 0 9.09495e-13 -1.81899e-12 0 1.81899e-12 1.81899e-12 0 4.54747e-13 1.02318e-12 7.27596e-12 -2.50111e-12 3.06954e-12 -5.45697e-12 -4.54747e-13 3.63798e-12 1.09139e-11 -9.09495e-13 3.18323e-12 7.27596e-12 9.09495e-13 4.14246e-12 9.09495e-13 -7.82165e-11 3.81561e-12 1.18234e-11 6.73026e-11 -2.27374e-13 2.04636e-12 3.63798e-12 -9.09495e-13 -2.20552e-11 -5.34783e-10 3.18323e-12 1.45519e-11 -6.36646e-11 1.81899e-12 -6.73026e-11 2.36469e-11 -2.50111e-12 6.00267e-11 8.0945e-11 1.36424e-12 -2.72848e-12 -3.54703e-11 1.27329e-11 6.36646e-12 1.89848e-08 4.54747e-13 -1.00044e-11 -1.90776e-08 9.09495e-13 -1.36424e-12 -2.00089e-11 4.54747e-13 -4.54747e-12 6.73026e-11 6.82121e-13 -9.09495e-13 1.81899e-11 0 -5.22959e-12 -2.14641e-10 2.27374e-13 4.54747e-12 -7.82165e-11 3.18323e-12 2.09184e-11 3.81988e-11 0 4.54747e-13 9.09495e-13 0 -4.54747e-13 9.09495e-13 0 -1.81899e-12 1.81899e-12 0 1.81899e-12 4.54747e-13 5.45697e-11 -1.98952e-13 -3.16359e-07 5.45697e-11 -3.41061e-13 3.1643e-07 -2.00089e-11 3.6593e-13 -8.18545e-12 -1.09139e-11 -2.80664e-13 -4.54747e-13 1.45519e-11 1.83897e-12 -8.91305e-11 6.91216e-11 -7.26974e-13 -4.91127e-11 1.81899e-12 2.13163e-14 3.63798e-12 -5.45697e-12 -3.55271e-14 1.78261e-10 1.27329e-11 -1.13687e-13 6.73026e-11 2.18279e-11 -1.42109e-13 1.83718e-10 1.81899e-11 1.42109e-14 -1.09139e-11 2.54659e-11 6.39488e-14 -3.61979e-09 3.63798e-12 7.4607e-14 4.09273e-11 -3.63798e-12 9.9476e-14 -2.06455e-10 2.09184e-11 -3.37882e-13 -3.45608e-11 0 4.44464e-13 9.09495e-12 -1.63709e-11 -4.26326e-14 -2.47845e-07 -2.72848e-11 3.97904e-13 2.47781e-07 -1.18234e-11 -3.90799e-13 -7.27596e-12 7.27596e-12 9.9476e-13 -1.81899e-12 -8.69477e-10 1.80975e-11 3.34244e-06 2.43745e-10 1.80052e-11 -3.34256e-06 -7.27596e-12 -7.10543e-15 -2.54659e-11 -2.00089e-11 7.81597e-14 -8.36735e-11 -1.81899e-12 2.27374e-13 4.36557e-11 -1.81899e-12 1.7053e-13 -1.30967e-10 -1.09139e-11 2.84217e-14 6.18456e-11 -5.82077e-11 8.52651e-14 1.20053e-10 0 -9.41469e-14 -1.27329e-11 -1.81899e-12 -2.04281e-13 7.45786e-11 1.00044e-11 -1.13687e-13 -5.45697e-11 1.90994e-11 1.13687e-13 -1.70985e-10 2.77656e-12 -1.41154e-08 -7.42285e-06 1.17761e-12 1.14596e-10 7.42962e-06 1.27329e-11 -3.01725e-10 2.72848e-12 2.23821e-13 -8.18545e-12 9.09495e-12 -6.06235e-11 2.27715e-09 1.47993e-08 -9.66622e-11 1.76715e-09 -1.75878e-08 -4.26326e-14 4.54747e-12 -9.09495e-11 4.26326e-14 3.54703e-11 -4.11092e-10 -7.10543e-15 0 3.63798e-11 -9.9476e-14 4.54747e-12 6.18456e-11 -4.61853e-13 -4.72937e-11 -4.27463e-11 1.63425e-13 -9.09495e-12 -8.18545e-12 -5.54223e-12 -3.63798e-11 -4.54747e-13 -9.9476e-14 4.09273e-12 -3.63798e-12 -1.42109e-14 0 3.18323e-12 -1.27898e-13 0 -1.13232e-10 5.68434e-14 -2.27374e-13 2.91038e-11 0 -1.43245e-11 -8.73115e-11 8.52651e-14 -4.54747e-13 2.36469e-11 1.56319e-13 -4.54747e-13 -4.91127e-11 -3.17968e-13 8.52651e-12 3.63329e-08 8.39329e-13 1.04706e-10 -3.6202e-08 -2.72316e-12 -1.25056e-10 8.69222e-07 -1.5028e-12 6.82121e-11 -8.6919e-07 -2.58521e-09 -3.01821e-07 -1.49821e-08 4.22071e-11 5.92377e-09 -2.54568e-09 3.97904e-13 5.34328e-12 -1.95541e-11 -4.83169e-13 -7.38964e-12 4.41105e-11 1.27898e-13 -2.04636e-12 4.3201e-11 -5.68434e-14 -1.13687e-12 -5.50244e-11 -1.56319e-13 1.81899e-12 1.56433e-10 2.27374e-13 5.45697e-12 4.00178e-11 -2.34479e-13 -3.18323e-12 -6.54836e-11 -1.98952e-13 3.18323e-12 5.82077e-11 -2.14584e-12 -2.05546e-10 -4.17559e-07 -6.96332e-12 8.18545e-12 4.17749e-07 -3.97904e-13 1.36424e-12 2.72848e-12 -6.39488e-12 8.54925e-11 -2.63753e-11 -3.28063e-09 -4.66682e-08 -1.21686e-08 5.68434e-13 1.00044e-11 -7.7307e-12 -7.10543e-15 2.27374e-13 -4.09273e-12 -3.55271e-14 -6.82121e-13 1.04592e-11 8.52651e-14 0 5.54792e-11 -8.52651e-14 -3.63798e-12 -3.18323e-11 -2.84217e-14 -1.13687e-12 -4.72937e-11 -1.13687e-13 -4.3201e-12 2.14641e-10 -4.26326e-14 1.36424e-12 -5.45697e-12 -9.9476e-14 5.45697e-12 -7.82165e-11 -1.81899e-11 8.49809e-12 -2.07449e-06 -1.45519e-11 -1.27898e-12 2.07446e-06 0 1.7053e-13 9.1859e-11 4.09273e-12 2.34479e-13 -2.72848e-12 1.61435e-11 6.71463e-13 -3.45608e-11 1.02318e-11 -1.05516e-12 3.00133e-10 -1.06866e-09 -1.36637e-11 -1.00928e-06 4.57476e-10 9.18519e-11 1.00864e-06 4.54747e-13 -4.26326e-14 -3.18323e-11 -4.54747e-13 -4.26326e-14 6.27551e-11 3.18323e-12 0 9.09495e-12 1.59162e-11 4.54747e-13 3.81988e-11 -4.54747e-13 -5.36602e-11 -7.96717e-10 -2.27374e-13 -4.82032e-11 8.18545e-10 2.27374e-13 -1.09139e-11 -6.23913e-10 -6.82121e-13 -9.09495e-12 6.56655e-10 -2.93099e-14 4.91127e-11 -1.52431e-09 1.33227e-14 -1.03137e-09 3.18614e-08 4.44089e-16 -3.45608e-11 4.98403e-10 0 -2.91038e-11 -4.91127e-10 3.90799e-14 -3.55271e-14 0 0 0 3.55271e-15 2.84217e-13 -2.41585e-13 0 0 0 -2.84217e-14 -5.68434e-14 -4.54747e-13 0 0 0 -3.19744e-14 -1.13687e-13 -2.27374e-13 0 0 0 -4.26326e-14 1.13687e-13 -1.7053e-13 0 0 0 -4.88498e-15 -4.54747e-13 -1.02318e-12 0 0 0 1.42109e-14 5.11591e-13 9.09495e-13 0 0 0 -2.84217e-14 302.836 -146.618 0 0 0 -89.2131 -727.493 -285.027 0 0 0 240.09 -5.11591e-13 5.68434e-14 0 0 0 -4.26326e-13 4.54747e-13 3.97904e-13 0 0 0 -7.10543e-14 1673.59 1659.73 0 0 0 -958.215 -2.84217e-13 3.41061e-13 0 0 0 -5.68434e-14 -2.27374e-12 8.18545e-12 0 0 0 -9.66338e-13 63.8546 -1389 -2264.93 -92.8026 3812.14 2386.47
